//Numpy array shape [8, 8]
//Min -1.495508313179
//Max 0.775847613811
//Number of zeros 0

#ifndef O_W1_H_
#define O_W1_H_

#ifndef __SYNTHESIS__
model_default_t O_w1[64];
#else
model_default_t O_w1[64] = {0.32901728, 0.05653482, -0.19414756, 0.50155896, 0.10028759, -0.46595326, 0.07864083, -0.19650966, 0.15421851, -0.33914155, -0.02153905, 0.21196574, 0.28591082, 0.12502539, -0.29270878, -0.53472245, -0.30637926, -0.04211709, -0.02430062, -0.09574454, -0.29091448, 0.19848049, 0.18571109, -0.08421092, -0.34480134, -0.49868819, -0.17963332, 0.27980191, -0.10539623, 0.01935592, -0.00110566, -0.14833446, 0.13774769, 0.13698423, 0.01780495, -0.20092048, -0.15022717, -0.05624852, -0.20199820, -0.19726802, 0.51247060, -0.32197833, 0.22157595, 0.23351583, 0.02286099, 0.09877028, -0.37574518, 0.70781565, 0.19395553, 0.52582937, -0.16214460, 0.44171950, -0.04508553, 0.07607356, 0.52692682, -1.49550831, 0.03467412, 0.73240298, 0.31893826, 0.04661892, 0.00071185, 0.16926539, 0.77584761, -0.16587046};
#endif

#endif
