//Numpy array shape [8, 10]
//Min -8.936506271362
//Max 6.854634284973
//Number of zeros 0

#ifndef R1_W0_H_
#define R1_W0_H_

#ifndef __SYNTHESIS__
model_default_t R1_w0[80];
#else
model_default_t R1_w0[80] = {1.18435407, 0.02068323, -0.13708748, 1.49469495, -0.07861650, 0.08774096, 0.26815456, -0.94858271, 0.11124559, -7.81408167, 0.82395279, 0.14551970, 0.05607699, 1.38742650, -0.16306156, -0.08286259, -0.68551111, 4.88687849, -0.10911754, 2.00019431, 0.29153576, 0.11252151, 0.03505573, 1.01438332, -0.13053057, -0.10133266, -0.66309673, 6.85463428, 0.29236120, 0.95416182, 0.01378490, 0.26589724, 0.13491490, -0.35151297, -0.33453235, -0.21499720, 0.18477514, -0.10510674, 0.03896942, -0.16104831, 0.34528562, 0.05337825, -0.77477705, 0.48417941, -0.17088695, -0.48650885, -0.90206558, 4.07288313, -1.70894742, 0.16305888, 0.23150837, -0.40468016, -0.10698639, 0.84340864, 0.42916736, -0.10291529, -0.14234275, -8.93650627, 0.13900591, 0.58559138, -0.20441587, 0.20540401, 0.19198242, 0.28046080, -0.17726451, -0.05205297, -0.00612593, 0.04618743, -0.23999104, -0.22440231, -0.81328225, -0.12053962, 0.12684472, -1.33709645, 0.08731237, -0.02480907, -0.18150254, -0.43889222, -0.00942990, -0.03919998};
#endif

#endif
