//Numpy array shape [8, 8]
//Min -1.279235124588
//Max 0.929921448231
//Number of zeros 0

#ifndef R2_W1_H_
#define R2_W1_H_

#ifndef __SYNTHESIS__
model_default_t R2_w1[64];
#else
model_default_t R2_w1[64] = {-0.26318133, 0.05620420, -0.39001572, 0.43692788, 0.59430975, -0.42100903, 0.69935077, 0.38171846, 0.72212756, -0.27764761, -0.72393775, 0.10585364, -0.66155845, 0.71630341, -0.57788366, 0.31218955, -0.01414222, -0.85020876, -0.56194091, -0.69417673, -0.93241453, 0.53593791, -0.17475028, -0.32517278, -0.77370369, 0.66488308, 0.50744241, 0.80585104, 0.80010760, -0.84107304, 0.92992145, 0.21079259, -0.43066314, 0.77761376, 0.06050088, -1.27923512, 0.55291492, 0.58814913, 0.42198581, -1.21188045, 0.33013511, -0.13388833, -0.22010779, 0.00007255, -0.48562080, 0.85665590, -1.24576414, -0.54501545, 0.00798364, 0.08698422, -0.33106768, -0.23896307, 0.13252226, -0.12914261, -0.29382518, -0.47077471, -0.37927142, -0.15129066, 0.12696058, -0.27063474, -0.48503810, 0.05278786, -0.18575595, -0.30536431};
#endif

#endif
